33 100
</s> -0.015456 0.02135 -0.018898 -0.0018487 0.022132 0.010369 0.016057 -0.011106 0.025745 0.024799 -0.0044551 0.0058047 0.022399 0.022314 -0.0059658 -0.0012857 0.0015091 0.0079182 -0.00028642 -0.015409 0.0019928 0.014678 0.013118 -0.019644 0.011484 -0.012178 0.010335 -0.0079333 -0.0035673 0.031325 -0.009151 -0.0076852 -0.022996 -0.025234 -0.02543 -0.00098995 0.0070511 -0.020412 -0.0018023 -0.012273 0.020464 0.021091 0.0213 0.016372 -0.00068622 0.0023972 -0.0066595 5.0444e-05 -0.018063 0.014306 -0.024922 0.028609 -0.024285 0.0086305 0.0070353 -0.0096036 0.0043646 0.0050105 0.0083133 0.0087019 -0.011602 0.015457 0.020933 0.016424 -0.0065084 0.0017381 -0.024278 0.013319 0.011984 0.019145 -0.02761 0.0065022 -0.0087503 0.0031731 0.00051647 -0.0076563 0.020927 0.013975 0.0005336 -0.010755 -0.019473 0.019793 0.022138 -0.01661 -0.0070856 -0.019635 0.0053136 0.0049836 -0.0087563 -0.0057518 0.023408 0.018364 0.031808 -0.02271 -0.0027775 -0.027139 0.011303 0.01991 -0.0096401 -0.012568
вы 0.0034696 0.004587 0.01048 -0.0109 0.0047587 0.0076898 -0.010009 0.0038041 -0.004487 -0.0032545 -0.0019023 -0.0055875 -0.0090996 0.00045089 -0.0076095 -0.0088044 0.0023826 0.0065216 -0.0073948 6.4376e-05 -0.0058481 0.012597 0.0029313 0.0097262 -0.011226 -0.0067991 -0.010851 -0.0027321 -0.0038925 -0.010747 -0.0058724 0.0003938 0.006496 -0.0035259 -0.0059228 -0.0022313 -0.0090236 0.0046271 -0.00031293 -0.0025115 -0.012386 0.010315 -0.0095805 0.00073549 0.007719 0.00074774 0.0096357 -0.0064689 -0.0033974 0.0018268 0.00096313 -0.005594 0.0049681 0.0053179 -0.012927 0.0035143 -0.012909 0.0011014 0.01139 -0.0021813 0.00050422 0.0022153 0.0053353 0.0077806 0.003811 -0.0039626 -0.0049888 -0.0067124 -0.0074086 -0.0087808 0.0042492 0.0055087 0.0075809 -0.0075939 -0.0034885 -0.0024717 -0.003802 0.0053711 0.008146 0.0066428 0.0016418 -0.0092522 0.0032968 0.0044943 0.0071844 0.0067619 -0.0035293 -0.010613 -0.006621 0.0063191 0.0023605 -0.001521 0.00058456 0.0036646 0.010919 0.0044911 -0.0023607 0.0017026 -0.0089025 -0.0061634
Доброе 0.0064478 -0.0064125 -0.0025031 -0.0034753 0.0023576 -0.0062241 -0.0073307 -0.010746 0.01149 0.011016 -0.010229 -0.0020804 -0.00025101 -0.0041649 -0.0029969 0.0046986 0.0026097 -0.0025653 -0.007777 0.002296 0.0074548 -0.0056129 -0.0054634 0.0010992 0.00033757 -0.0020142 0.0061065 -0.0098467 -0.0085618 0.0047906 0.0027206 0.0065932 -0.0061878 0.00065893 -0.010511 -0.0071741 -0.0070309 0.0074115 0.0088026 0.007673 -0.0063459 0.0063089 0.0070086 0.0017463 0.0042453 0.0046375 0.0078338 0.0082742 0.0048753 0.0087849 -0.0037533 0.0020071 0.0035942 -0.0052341 -0.008639 0.0074833 0.0022746 -0.0079575 -0.0061185 -0.0036092 0.0091551 0.00967 0.008524 0.0080034 -0.0065789 0.0032864 -0.0075645 -0.0012628 0.0044506 -0.0072358 0.0050411 0.0042554 0.0028386 -0.0094963 -0.0089434 0.0027657 0.010164 -0.0033088 0.0092247 -0.0086649 0.0073191 -0.00072039 -0.0054673 -0.0060595 -0.002379 -0.0083513 -0.0016899 0.0099772 0.0059497 -0.0038934 -0.0046355 0.0011671 0.0095685 -0.0046932 0.0027858 -0.0035135 -0.0015575 0.0064495 0.0053861 0.007507
Когда 0.00097513 0.0088961 -0.0049364 -0.0042432 -0.00027016 0.0077211 -0.0078623 0.0009349 0.0054065 0.0057475 -0.0048291 0.0092692 -0.0094976 0.0033414 0.0045492 -0.0063878 -0.0072963 -0.0075339 0.0075243 0.0034123 0.0079026 0.0099087 -0.00088507 0.0028892 -0.0084645 0.0044873 0.007266 -0.0030772 -0.010086 -0.0068815 0.0062099 0.005922 0.00083249 0.0098132 -0.0015806 0.0077651 0.0011964 -0.0037178 -0.0016452 0.0044462 0.00084431 -6.4525e-05 -0.0063411 -0.0080786 -0.0014029 -0.0050287 0.0081032 -0.0028298 0.0048668 0.0055657 -0.0083259 -0.0079474 0.002908 -0.006569 -0.0039327 -0.0052544 -0.001963 0.0029561 0.0057216 0.00076502 -0.0077984 0.0019084 0.0028279 -0.0084666 -0.0072978 0.0021457 0.0019465 -0.0061183 -0.0022348 -0.0057954 0.01014 0.0027903 0.0014793 0.0038975 -0.00068375 0.0084301 0.0047125 0.010465 0.007492 -0.0071178 0.0017172 0.0013366 0.0082561 0.0061749 0.010783 0.0016901 -0.0019954 0.0071574 -0.010113 -0.0093134 0.00081924 -0.0080819 -0.00018226 0.0041129 -0.0052554 -0.0027846 -0.00052036 0.0039222 -0.0034129 0.0028953
Добрый -0.0061101 0.00797 -0.0030289 0.0018896 0.013499 0.01132 0.0073642 -0.012474 0.0091786 0.007894 -0.0007927 -0.004249 -0.00096827 0.0063912 0.0086574 0.0012727 0.0033351 -0.0018509 -0.0060763 0.0072693 0.0092303 -0.0018283 -0.0026749 -0.012627 0.004798 0.0026549 0.01126 0.0031048 0.0072478 0.012381 0.0050312 -0.010001 -0.011604 -0.0063579 -0.0026782 0.0069071 -0.0078556 0.0066345 0.0058416 -0.0005258 -0.00090596 0.00038697 0.012458 0.013034 0.0058122 -0.0095233 -0.001577 0.010456 -0.0040908 -0.00016185 -0.0093985 0.010418 0.00049818 0.0010491 0.011806 0.0063718 -0.0038674 0.0055324 -0.0091389 0.010289 0.0017947 0.0043627 -0.0011853 0.0012621 0.006729 0.0056607 -0.0088526 -0.0068599 -0.0044793 0.0075539 -0.0085785 0.00038849 -0.0088372 0.0074114 -0.0046134 -0.0050697 -0.0042629 -0.0092348 0.0044826 -0.0041974 -0.010434 0.0057567 0.0034093 0.0013891 -0.001608 -0.006321 0.0039343 0.0067233 -0.0052892 0.0071636 0.0086872 0.0045075 0.014333 -0.0039242 0.0011288 0.0032233 0.0010774 -0.0063491 -0.0067362 -0.0084499
вечер 0.0083998 0.0065675 0.0044433 -0.0042546 0.0072092 0.0046058 -0.0064539 -0.0043838 -0.0065513 0.01126 -0.00016692 0.0041406 -0.00326 0.00042485 -0.0065025 0.0041948 -0.0062072 -0.0080807 0.0072185 -0.0074563 -0.0066416 0.0024675 0.0073463 -0.0047647 0.0034768 0.005824 0.0010522 -0.0069351 -0.0082821 -0.0038021 -0.0070368 0.0062087 -0.006581 -0.003508 0.0020326 0.0061597 -0.0065728 -0.0064215 -0.0083153 0.0082747 -0.0047992 0.0010415 -0.0018263 0.0051279 0.0083655 -0.0028639 -0.0033519 -0.0089653 -0.0063026 0.0095997 -0.0079615 -0.0057798 -0.011805 0.0067654 0.0054588 0.0020902 0.0025957 -0.00023858 0.00062246 -0.0017838 -0.0090899 -0.0024331 0.010177 -0.0023784 0.0045946 0.0027988 -0.011911 -0.00536 -0.0045757 0.0093944 -0.0043846 0.0072782 0.0089813 -0.0096242 -0.0030806 -0.0028161 0.0043854 -0.007454 -0.0061165 -0.0042602 0.0038846 0.0071671 0.0039117 0.0088908 0.0061031 -0.0030717 -0.008589 0.001969 -0.0091752 0.0095124 0.00040731 0.00028834 -0.0053905 0.00037656 -0.00020467 -0.0021281 -0.0077854 0.0006927 -0.0061308 -0.00896
Хорошего 0.0064486 0.00089597 0.0070995 -0.0081062 -0.0017967 0.0049212 0.005648 -0.0031205 0.0026637 0.0023288 0.00041668 0.006199 -0.0080291 -0.0076799 -0.0052133 0.008628 -0.0014817 -0.0021124 0.00045558 0.0041089 0.0080541 0.009834 0.0027351 -0.0062819 0.0028627 0.0049472 -0.0045587 -0.0010288 0.00040783 0.011793 -0.0067329 -0.010542 -0.0079028 -0.00039876 0.002157 0.0059644 0.004978 0.0022722 -0.00013108 0.00042559 -0.0027117 0.0079574 0.0075504 -0.0031712 0.0081543 -0.0059399 0.0091408 -0.0068346 -0.0013029 -0.0046723 0.0030259 0.0088074 -0.0076318 0.00056673 0.0060068 -0.0038085 -0.00061896 0.0033676 0.0082737 -0.0013757 -0.0010293 0.0076399 -0.0077347 -0.0079095 -0.0061837 0.0061346 -0.01192 0.0049499 -0.00038326 0.011682 -0.01001 0.00278 -0.0059292 -0.0026856 0.0014838 0.00048904 0.0011084 -0.0077545 -0.0078092 -0.003882 0.0052063 0.0095863 0.005417 -0.0073209 0.0065147 -0.0068413 0.0083713 0.0058867 0.0085857 0.00017257 -3.4846e-05 -0.0028751 -0.00050714 -0.0025309 -0.0071758 -0.010104 -0.001323 -0.0028023 0.0078879 -0.010545
дня -0.0074675 -0.0020383 -0.0098506 -0.0063972 0.010546 -0.0016022 -0.0027357 -0.00036153 0.0027382 -0.0048915 0.0033047 -0.0083922 0.0019423 0.011065 0.0062837 -0.0010319 -0.0049873 0.0011238 0.0020826 0.0040571 0.0018004 -0.0031238 -0.0057998 0.0010966 -0.0047328 -0.0063358 -0.0036149 0.0049175 -0.0047043 0.0047912 -0.00092046 0.0069489 0.007523 0.0019709 -0.011092 0.0049647 0.0084815 -0.010269 0.0081154 0.0017711 0.0064685 0.0069647 0.0024791 0.0084627 0.0054902 0.0056054 0.0071961 0.0084857 0.0051382 0.011038 -0.0085335 0.0018054 0.0036762 0.0087882 0.0036099 -0.0021674 0.0010646 0.0012846 0.0059316 -0.006671 -0.0016512 -0.0068207 0.010902 -0.0076205 -0.0066703 -0.0072052 0.00081116 -0.0016014 -0.0080678 -0.0031331 -0.0081046 0.0064534 -0.009336 0.0012816 0.0084491 0.0080739 -0.0049163 0.0068705 -0.0045023 -0.0037631 -0.0036267 -0.0022996 0.0089245 0.0071121 0.0004046 0.0075025 -0.00024483 0.0049497 0.00029892 -0.0032765 0.011011 -0.0015869 -0.0065596 -0.0061633 -0.010455 -0.0079751 -0.0025736 -0.0086105 0.0067246 -0.0040178
день 0.0051658 -0.0040491 0.0068376 -0.0034568 0.0092959 -0.008805 -0.0005668 0.0012459 -0.0066517 -0.0017914 -0.008903 -0.0024168 -0.0021471 0.011554 0.004081 -0.0067071 0.0017549 0.0053391 0.0083372 -0.0015568 -0.008267 -0.002139 0.004299 -0.0075394 0.00049695 -0.0040456 0.0099888 -0.0093139 0.0086981 0.0078843 0.0016201 0.0092393 0.0031321 -0.0044222 -0.0087313 0.0024601 0.0092194 0.0027155 0.0016561 0.009017 -0.0070844 -0.0082123 0.011896 0.0088214 0.0080267 -0.0077881 0.0034244 0.0059172 -0.0040937 0.011302 -0.0056908 0.0071462 -0.008374 0.0077629 -0.00049918 0.0068158 -0.00020751 -0.0090111 -0.0039639 0.0055427 -0.0032782 0.0027959 0.0075998 0.010987 -0.0029279 -0.0066694 0.0066068 -0.0036998 -0.004324 -0.001688 0.0013242 -0.0081721 0.0014781 0.0085622 0.009406 0.0070143 -0.0052044 0.0062983 0.0084188 0.0086736 -0.0028386 -0.0012095 -0.00056272 -0.0086065 0.0084226 0.0052815 0.0058915 0.0030087 -9.7224e-05 0.0020704 0.00029997 -0.0030725 0.010986 0.0046796 -0.0052696 -0.0044257 -0.0017585 0.010604 0.0073663 -0.0047922