the -0.634127 -1.770394 0.131677 -0.059609 1.111649 0.409249 -1.068154 1.225281 0.237244 -0.805305 0.783536 0.753660 -0.004413 -0.719001 -0.547871 -0.119479 0.758205 -1.997982 -0.581203 0.032683 -0.939278 -0.553346 -0.080863 1.066441 0.092045 0.886507 -0.431511 0.280635 -0.270687 0.543214 -1.367752 0.592376 0.818605 1.028408 0.166623 -0.274377 -1.213295 -0.823605 -0.293862 -2.230959 -0.687073 1.143868 0.199757 -0.273015 -0.549830 -1.152042 -0.683840 -0.097181 0.070575 1.122378
of -0.132314 -1.625122 -0.879049 -0.821170 0.396325 0.274799 -1.139319 0.562987 -0.551027 -1.059475 1.025362 0.983138 -1.020843 0.323238 -0.755840 0.023111 0.802772 -2.238432 0.030256 0.564217 -0.429880 0.054399 -0.109716 1.321968 -1.060021 0.464115 -0.414840 -0.150794 -0.510423 0.030861 -2.411428 0.512730 0.704254 0.342068 -0.011108 -0.507623 -0.851792 -1.398101 -0.209412 -1.840958 -0.789629 1.383751 0.505623 -0.514004 0.791748 -0.798496 0.245129 -0.088785 1.027316 1.106913
and -0.012069 -1.374352 0.078148 -0.086952 -0.263308 0.286841 -1.219940 0.544232 -0.034422 -0.242622 0.405553 0.944102 -1.115111 0.238668 -0.048557 -1.271300 0.222261 -1.456168 -0.154107 -0.146528 -0.758216 -0.913158 0.639308 0.962662 -0.160024 1.160770 -0.835370 0.343987 -0.128619 -0.018036 -1.383088 -0.096828 1.037227 0.478021 0.005012 -0.613474 -1.424490 -0.712319 -0.272070 -1.668554 -1.125486 1.645125 -0.337093 0.029633 0.133711 -1.300320 -0.130733 0.181769 0.551711 1.139623
one 0.078347 -1.389195 -0.860523 1.011046 0.474555 0.100557 -0.968165 0.787139 0.154234 0.164111 0.401448 1.025010 -1.503376 -0.659779 -0.308810 0.170019 2.190963 -1.847117 0.294230 1.074289 -0.404160 -0.855745 0.590784 1.657682 -0.549378 0.475450 0.178408 0.697022 -0.472144 0.352478 -1.063073 -0.554309 1.300388 0.800004 -0.159723 0.223542 -1.628388 -0.301870 -0.068336 -0.690580 -1.226462 1.066148 -0.065180 -0.709228 0.081409 -1.655352 -0.589584 1.051981 0.344130 1.650919
in -0.477044 -1.049695 -0.643263 0.055658 0.883510 0.047563 -1.135944 0.814701 0.394360 -0.203282 0.304616 1.559916 -1.273443 0.206805 -0.253676 -0.263575 0.746642 -1.763301 0.348636 0.371436 -0.703501 -1.347824 0.133784 1.397415 0.275419 0.747238 -0.584269 0.148468 -0.386557 0.577240 -1.157303 0.570289 0.612021 0.705960 -0.388855 -0.563066 -1.193572 -0.322142 -0.576688 -1.409814 -1.195220 1.249242 0.160458 -0.463038 -0.284502 -1.782297 -0.607542 0.041515 1.209512 0.693985
a 0.262433 -1.510725 -0.101304 -0.430602 1.383818 0.771842 -0.729087 1.056381 0.383787 -1.093191 0.012048 0.037157 -1.212690 -0.787315 -1.145858 -0.289515 0.112147 -1.934074 0.034074 0.809518 -0.640984 -0.799543 1.024558 0.807891 -0.220714 1.149677 0.413755 -0.713299 -0.089878 0.952217 -1.494599 -0.457250 1.143343 0.969908 -0.566356 0.373467 -1.274723 -0.738184 -0.399656 -1.510190 -0.526866 1.046217 0.846955 0.720965 -0.761937 -1.672741 -0.915968 -0.099729 0.970230 0.948977
to -0.603331 -1.185237 -0.344900 -0.029583 -0.245322 0.570432 -1.363375 1.341013 -0.058140 -0.164257 0.377074 0.858148 -0.031344 -0.666184 -1.183245 -0.085832 0.112952 -1.691801 0.370022 -0.097682 -0.663264 -0.723505 1.517695 0.941965 0.759964 0.539550 -0.406920 0.368209 -0.714010 1.197399 -2.092683 -0.249338 1.177774 1.119439 -0.441329 -1.108688 -1.634207 -1.394688 -0.234569 -1.770751 -1.042823 2.021604 0.160594 -0.402060 -1.015573 -0.749730 0.176487 0.642049 0.633229 -0.057577
zero 0.314953 -1.818059 -0.740042 1.304389 0.357397 -0.490444 -0.382963 1.455299 0.881359 0.209420 0.399412 0.392157 -1.461466 -0.297025 -0.877848 -0.477302 1.475536 -1.483079 0.999169 0.871129 -1.279567 -0.180493 0.393030 1.400466 -0.522205 0.646013 -0.433447 0.005358 -0.639225 0.505104 -1.007664 -0.309055 1.704692 0.097564 -0.274513 0.542717 -1.284923 -0.377338 0.183752 -1.010153 -1.784887 1.342550 0.729755 -1.298298 -0.041808 -1.422890 -0.830672 0.960567 -0.576645 1.027723
nine 0.282106 -1.211435 -0.918628 1.155359 0.504715 0.538501 -1.389628 0.836968 0.242542 0.536293 0.366691 0.664474 -1.346512 -0.252207 0.057681 0.042970 2.061062 -1.810762 0.478171 1.068316 -0.309136 -1.384386 1.061160 1.700750 -0.569855 0.742346 0.030344 0.455609 0.001486 0.135355 -0.520911 -0.082472 1.284463 0.540420 0.105558 0.317028 -1.489937 0.169826 -0.203484 -0.867303 -1.569136 1.018558 -0.239885 -0.736979 0.212388 -1.599040 -0.731581 1.039785 -0.227280 1.703969
two 0.547172 -1.660098 -0.250286 1.269076 0.440363 -0.473235 -0.380131 1.121552 0.357248 -0.160837 0.424985 0.598193 -1.550574 -0.136169 -0.660572 -0.498736 1.993112 -1.628448 0.780078 1.163877 -0.678458 0.047596 0.393781 1.444560 -0.618887 0.402248 -0.446731 0.739613 -0.648196 0.530489 -0.798935 -0.423609 1.686497 0.518373 -0.222636 0.185183 -1.430078 -0.776115 0.244110 -0.828350 -1.628573 1.315058 0.437263 -1.181830 -0.085648 -1.376995 -0.795934 0.957354 -0.111903 1.148171